SNNS network definition file V1.4-3D
generated at Wed Oct 14 12:10:38 2009

network name : SNNS_FF_NET
source files :
no. of units : 63
no. of connections : 530
no. of unit types : 0
no. of site types : 0


learning function : Rprop
update function   : Topological_Order


unit default section :

act      | bias     | st | subnet | layer | act func     | out func
---------|----------|----|--------|-------|--------------|-------------
 0.00000 |  0.00000 | h  |      0 |     1 | Act_Logistic | Out_Identity 
---------|----------|----|--------|-------|--------------|-------------


unit definition section :

no. | typeName | unitName | act      | bias     | st | position | act func | out func | sites
----|----------|----------|----------|----------|----|----------|----------|----------|-------
  1 |          | unit     |  6.00000 |  1.00000 | i  |  2, 2,-26102 |||
  2 |          | unit     |  4.00000 |  0.99803 | i  |  3, 2,-26102 |||
  3 |          | unit     | -0.40000 |  0.91674 | i  |  4, 2,-26102 |||
  4 |          | unit     |  0.50000 |  0.64671 | i  |  5, 2,-26102 |||
  5 |          | unit     |  3.00000 |  0.27080 | i  |  2, 3,-26102 |||
  6 |          | unit     |  4.00000 |  0.81734 | i  |  3, 3,-26102 |||
  7 |          | unit     | -0.07000 |  0.81540 | i  |  4, 3,-26102 |||
  8 |          | unit     |  0.00000 |  0.02557 | i  |  5, 3,-26102 |||
  9 |          | unit     |  0.00000 | -0.05350 | i  |  2, 4,-26102 |||
 10 |          | unit     |  0.00000 |  0.09113 | i  |  3, 4,-26102 |||
 11 |          | unit     |  0.16000 |  0.53364 | i  |  4, 4,-26102 |||
 12 |          | unit     |  0.00000 | -0.66258 | i  |  5, 4,-26102 |||
 13 |          | unit     |  3.00000 | -0.86346 | i  |  2, 5,-26102 |||
 14 |          | unit     |  4.00000 | -0.13612 | i  |  3, 5,-26102 |||
 15 |          | unit     | -0.07000 | -0.11219 | i  |  4, 5,-26102 |||
 16 |          | unit     |  0.00000 |  0.89834 | i  |  5, 5,-26102 |||
 17 |          | unit     |  4.00000 | -0.53410 | i  |  2, 6,-26102 |||
 18 |          | unit     |  3.00000 |  0.96217 | i  |  3, 6,-26102 |||
 19 |          | unit     |  0.53000 |  0.49528 | i  |  4, 6,-26102 |||
 20 |          | unit     |  0.00000 |  0.40361 | i  |  5, 6,-26102 |||
 21 |          | unit     |  8.00000 | -0.75196 | i  |  2, 7,-26102 |||
 22 |          | unit     |  6.00000 | -0.06311 | i  |  3, 7,-26102 |||
 23 |          | unit     |  0.02000 | -0.84052 | i  |  4, 7,-26102 |||
 24 |          | unit     |  0.00000 | -0.03086 | i  |  5, 7,-26102 |||
 25 |          | unit     | 10.00000 | -0.62086 | i  |  2, 8,-26102 |||
 26 |          | unit     |  6.00000 |  0.62316 | i  |  3, 8,-26102 |||
 27 |          | unit     |  0.37000 | -0.77263 | i  |  4, 8,-26102 |||
 28 |          | unit     |  0.00000 | -0.14123 | i  |  5, 8,-26102 |||
 29 |          | unit     |  0.00000 |  0.84645 | i  |  2, 9,-26102 |||
 30 |          | unit     |  0.00000 | -0.63055 | i  |  3, 9,-26102 |||
 31 |          | unit     |  0.16000 | -0.96978 | i  |  4, 9,-26102 |||
 32 |          | unit     |  0.00000 |  0.76330 | i  |  5, 9,-26102 |||
 33 |          | unit     |  4.00000 | -0.78781 | i  |  2,10,-26102 |||
 34 |          | unit     |  3.00000 | -0.56897 | i  |  3,10,-26102 |||
 35 |          | unit     |  0.53000 |  0.79817 | i  |  4,10,-26102 |||
 36 |          | unit     |  0.00000 |  0.49338 | i  |  5,10,-26102 |||
 37 |          | unit     |  2.00000 |  0.96032 | i  |  2,11,-26102 |||
 38 |          | unit     |  2.00000 |  0.24325 | i  |  3,11,-26102 |||
 39 |          | unit     | -0.26000 | -0.35775 | i  |  4,11,-26102 |||
 40 |          | unit     |  0.00000 | -0.36185 | i  |  5,11,-26102 |||
 41 |          | unit     |  2.00000 | -0.50541 | i  |  2,12,-26102 |||
 42 |          | unit     |  2.00000 |  0.98754 | i  |  3,12,-26102 |||
 43 |          | unit     | -0.26000 | -0.24881 | i  |  4,12,-26102 |||
 44 |          | unit     |  0.00000 |  0.74708 | i  |  5,12,-26102 |||
 45 |          | unit     |  8.00000 | -0.23510 | i  |  2,13,-26102 |||
 46 |          | unit     |  6.00000 | -0.54186 | i  |  3,13,-26102 |||
 47 |          | unit     |  0.02000 |  0.62693 | i  |  4,13,-26102 |||
 48 |          | unit     |  0.00000 |  0.00656 | i  |  5,13,-26102 |||
 49 |          | unit     |  5.00000 | -0.01900 | i  |  2,14,-26102 |||
 50 |          | unit     |  4.00000 |  0.36812 | i  |  3,14,-26102 |||
 51 |          | unit     | -0.69000 | -0.40341 | i  |  4,14,-26102 |||
 52 |          | unit     |  0.00000 |  0.26551 | i  |  5,14,-26102 |||
 53 |          | unit     |  0.99997 | -0.74525 | h  |  8, 2,-26102 |||
 54 |          | unit     |  0.00000 |  0.53873 | h  |  8, 3,-26102 |||
 55 |          | unit     |  1.00000 |  4.35699 | h  |  8, 4,-26102 |||
 56 |          | unit     |  1.00000 |  0.26262 | h  |  8, 5,-26102 |||
 57 |          | unit     |  0.72412 | -0.47967 | h  |  8, 6,-26102 |||
 58 |          | unit     |  0.00001 |  0.90531 | h  |  8, 7,-26102 |||
 59 |          | unit     |  0.00003 |  0.74561 | h  |  8, 8,-26102 |||
 60 |          | unit     |  1.00000 |  0.18322 | h  |  8, 9,-26102 |||
 61 |          | unit     |  0.75623 |  0.71613 | h  |  8,10,-26102 |||
 62 |          | unit     |  0.99974 |  0.64108 | h  |  8,11,-26102 |||
 63 |          | unit     |  0.44848 | -0.29642 | o  | 11, 2,-26102 |||
----|----------|----------|----------|----------|----|----------|----------|----------|-------


connection definition section :

target | site | source:weight
-------|------|---------------------------------------------------------------------------------------------------------------------
    53 |      |  1: 0.26541,  2:-0.04313,  3: 0.13731,  4:11.37142,  5:-0.32846,  6: 0.66446,  7:-6.86219,  8:-0.72381,  9:10.67874,
                10:12.11203, 11:-1.06209, 12:-10.90075, 13: 0.84115, 14: 0.46682, 15: 0.36679, 16:-0.35245, 17:-0.72099, 18:-0.04533,
                19: 1.50760, 20:-2.84128, 21:-0.14498, 22:-0.40925, 23:-1.50506, 24:-5.45842, 25:-0.89612, 26:-0.21684, 27: 8.11951,
                28: 0.31863, 29: 0.58357, 30:-0.86731, 31: 3.62629, 32:-0.14924, 33:-0.80117, 34: 0.72956, 35:-0.36495, 36: 0.74603,
                37: 0.89983, 38: 0.99292, 39:-6.93248, 40:-6.48062, 41: 0.12705, 42: 0.82114, 43: 1.55610, 44:-1.68806, 45: 0.17359,
                46: 0.48225, 47:-4.50714, 48: 0.04189, 49:-0.44946, 50: 0.47529, 51:-1.18164, 52:-7.74225
    54 |      |  1: 0.03837,  2:-0.52416,  3:-0.86114,  4:-3.67176,  5: 0.09535,  6:-0.84191,  7: 3.13417,  8:-0.69211,  9: 0.09073,
                10:-1.75412, 11: 2.60271, 12:-0.83371, 13: 0.62726, 14:-0.29100, 15:-1.25051, 16:-0.54883, 17: 0.34341, 18:-0.67080,
                19:-0.16886, 20:-2.03131, 21: 0.60305, 22: 0.07817, 23: 3.50475, 24: 4.36410, 25:-0.57747, 26:-3.73002, 27:-9.23426,
                28: 1.72395, 29:-0.55934, 30: 0.89229, 31:-0.77645, 32: 0.11394, 33:-0.92839, 34:-0.88986, 35:-0.03442, 36:-0.06562,
                37: 0.18760, 38:-0.29726, 39:-7.39613, 40:-6.02188, 41: 0.61233, 42:-0.96226, 43: 2.28666, 44: 3.92607, 45: 0.00170,
                46: 0.24715, 47: 2.44856, 48:-0.51973, 49: 0.65294, 50: 0.17162, 51: 1.23442, 52: 8.63630
    55 |      |  1: 4.76037,  2: 4.39248,  3:-1.43387,  4:-10.73826,  5: 0.61796,  6: 3.28694,  7:-0.50101,  8: 0.76040,  9: 7.44123,
                10: 7.85300, 11: 5.46598, 12:-7.71307, 13: 3.66430, 14: 2.24314, 15:-7.85665, 16: 0.19368, 17: 1.21203, 18: 2.00067,
                19: 0.59845, 20: 5.85133, 21: 1.96759, 22: 2.15150, 23: 4.51676, 24:-0.92929, 25: 3.47145, 26: 3.21100, 27: 3.55017,
                28:15.34134, 29:-0.35211, 30:-0.52397, 31: 0.74548, 32:-0.43896, 33: 4.11704, 34: 3.61387, 35: 4.00459, 36:-0.62991,
                37: 0.83507, 38: 1.83437, 39:-0.47248, 40:-0.27708, 41: 3.80641, 42: 3.57417, 43:-10.11099, 44:11.19221, 45: 1.47802,
                46: 1.09703, 47: 2.97209, 48: 9.22269, 49: 3.59849, 50: 3.59802, 51:-4.54347, 52:-7.65291
    56 |      |  1: 0.82637,  2: 0.86012,  3:-0.49183,  4: 3.79671,  5: 0.45452,  6:-0.50863,  7:-9.28590,  8:-0.11913,  9: 0.36147,
                10: 0.82714, 11: 1.52289, 12: 2.64516, 13: 0.46954, 14: 0.44451, 15:-0.84164, 16: 0.58088, 17:-0.40606, 18:-1.05857,
                19:-3.59712, 20: 2.81753, 21: 0.15561, 22:-0.30501, 23:-4.40491, 24: 8.21256, 25: 0.22192, 26: 1.80241, 27: 2.18057,
                28:-5.43656, 29:-0.87412, 30:-0.15219, 31: 0.15236, 32: 1.07945, 33:-0.47640, 34:-0.79707, 35: 0.61918, 36: 0.88069,
                37: 0.98331, 38: 0.20852, 39:-2.70678, 40:-5.44940, 41:-0.97542, 42:-0.87698, 43:-0.47569, 44:-0.15803, 45: 0.33138,
                46: 0.54751, 47: 8.92393, 48: 3.83414, 49:-0.70576, 50:-0.43570, 51: 0.00354, 52:-6.94821
    57 |      |  1: 0.46604,  2: 0.46339,  3: 0.71565,  4:-1.78316,  5: 0.11579,  6: 1.19029,  7: 5.29054,  8:-0.71679,  9: 0.35740,
                10:-1.16129, 11:-3.69340, 12:-0.32848, 13:-0.79454, 14: 0.84636, 15: 4.68413, 16: 0.61949, 17: 0.38175, 18: 0.48349,
                19: 0.19540, 20: 5.89533, 21:-0.00250, 22:-0.32752, 23: 2.64299, 24:-5.00514, 25:-0.09102, 26:-0.80342, 27:-0.30579,
                28: 1.82384, 29: 0.85663, 30:-0.72817, 31:-1.81105, 32: 0.15899, 33:-0.32879, 34: 0.23706, 35: 0.92149, 36:-0.69852,
                37: 0.91749, 38: 0.88776, 39:-2.82706, 40: 0.23747, 41: 0.07389, 42:-0.95364, 43: 0.08721, 44:-0.74765, 45:-0.52820,
                46:-0.45512, 47: 0.08434, 48: 2.90601, 49: 0.31038, 50: 0.80218, 51: 3.06388, 52: 1.02226
    58 |      |  1:-0.37907,  2:-0.74249,  3: 0.60848,  4: 6.38317,  5: 0.88901,  6: 0.01389,  7: 0.73388,  8: 0.48795,  9: 0.35131,
                10:-0.64311, 11: 0.54831, 12: 0.86804, 13:-0.81284, 14:-0.39070, 15:-0.93560, 16: 0.18974, 17:-0.60161, 18: 1.06060,
                19: 0.79530, 20:-7.46694, 21:-0.83564, 22: 0.01628, 23:-0.37455, 24:-0.20914, 25: 0.32002, 26:-0.27389, 27: 0.55679,
                28: 1.00194, 29: 1.01520, 30: 0.93856, 31:-0.53028, 32: 0.22807, 33:-0.65214, 34:-0.32775, 35: 0.52943, 36: 0.71756,
                37:-0.48776, 38: 0.43176, 39: 2.01734, 40:-2.19221, 41: 0.15755, 42:-0.63127, 43:-0.68831, 44: 4.76883, 45: 0.22384,
                46: 0.61010, 47: 2.77956, 48: 0.87231, 49:-0.71083, 50:-0.63965, 51:-0.21812, 52: 9.38076
    59 |      |  1:-0.67624,  2:-0.82281,  3: 0.89665,  4:-5.68352,  5: 0.83768,  6: 0.51034,  7: 4.42720,  8:-0.28846,  9:-1.11161,
                10: 0.55052, 11: 0.24092, 12:-0.57675, 13:-0.40387, 14:-0.87092, 15:-1.09704, 16:-0.37850, 17:-0.72737, 18: 0.40623,
                19:-0.55286, 20:-1.93404, 21:-0.16590, 22:-0.04110, 23:-8.64646, 24:-1.47862, 25:-0.09406, 26:-0.01783, 27: 5.73548,
                28:-3.63860, 29: 1.55464, 30:-0.38684, 31: 0.92353, 32:-0.86111, 33: 0.69519, 34: 0.64291, 35:-0.88220, 36:-0.49049,
                37: 0.59642, 38: 0.01433, 39: 0.01683, 40:-0.74114, 41: 0.07792, 42: 0.79508, 43:-0.61283, 44:-0.05486, 45:-0.82857,
                46: 0.44992, 47:-4.91392, 48:-0.04868, 49:-0.77286, 50: 0.50078, 51:-1.00892, 52:-0.39320
    60 |      |  1: 0.89236,  2: 0.78968,  3:-0.05956,  4:-0.14591,  5: 0.77101,  6: 0.91486,  7:-0.00180,  8:-0.44950,  9: 0.01154,
                10: 0.30783, 11: 0.92985, 12: 0.26699, 13:-0.83120, 14:-0.00986, 15:-0.72354, 16:-0.84708, 17: 0.96931, 18: 0.42008,
                19: 0.52128, 20:-0.43292, 21: 0.79685, 22:-0.55476, 23: 0.51068, 24: 0.13667, 25:-0.18320, 26:-0.02903, 27:-0.53727,
                28:-0.44317, 29:-0.60716, 30:-0.48104, 31:-0.01236, 32:-0.63663, 33: 0.88147, 34:-0.15174, 35:-0.72350, 36:-0.10235,
                37:-0.65731, 38: 0.75188, 39:-0.42035, 40: 0.99686, 41: 0.93641, 42: 0.41731, 43:-0.34287, 44: 0.39953, 45: 0.13233,
                46: 0.45341, 47: 0.75142, 48: 0.73134, 49: 0.79011, 50: 0.16793, 51:-0.64117, 52: 0.47976
    61 |      |  1: 0.98503,  2: 0.57024,  3: 0.27941,  4:-5.04072,  5: 0.28841,  6: 0.02583,  7:-1.23266,  8: 0.34024,  9:13.96849,
                10:12.39993, 11:-0.53415, 12:-13.19124, 13:-0.44866, 14: 0.66527, 15: 5.78275, 16:-0.37103, 17:-0.71222, 18:-0.09524,
                19:-1.95070, 20:-6.37440, 21:-0.91169, 22:-0.83346, 23:-2.77029, 24: 4.92856, 25: 0.12785, 26:-0.15255, 27: 9.77983,
                28: 4.32828, 29:-0.13204, 30: 0.62399, 31:-1.98118, 32:-0.51794, 33: 0.61410, 34: 0.82085, 35:-0.14934, 36: 0.96164,
                37: 0.91083, 38: 0.67815, 39:-4.18003, 40: 5.77865, 41: 0.43962, 42:-0.00805, 43:-0.91298, 44: 1.64839, 45:-0.44429,
                46:-0.39258, 47:-4.18432, 48: 0.66008, 49:-0.31763, 50: 0.67555, 51:-0.67492, 52:-2.98893
    62 |      |  1: 0.64251,  2:-0.07462,  3: 0.38998,  4: 9.87541,  5: 0.08310,  6: 0.78500,  7:-3.60007,  8:-0.07058,  9:-0.28182,
                10:-0.57277, 11:-2.70225, 12:-0.33327, 13: 0.16036, 14:-0.46458, 15: 5.19728, 16: 0.75045, 17: 0.47306, 18:-0.91451,
                19:-0.46403, 20: 0.36266, 21:-0.39266, 22:-0.63280, 23:-5.43519, 24:-11.57476, 25:-0.35986, 26: 0.08755, 27:-2.15221,
                28:-0.47378, 29: 7.92863, 30: 9.11260, 31: 0.69069, 32: 0.24740, 33: 0.51265, 34:-0.89947, 35: 0.32301, 36: 0.47811,
                37: 0.89261, 38:-0.64157, 39:-3.20738, 40: 3.96824, 41: 0.63814, 42:-0.41371, 43: 0.66928, 44: 3.53195, 45: 0.52610,
                46: 0.65435, 47:-0.23315, 48: 3.67791, 49: 0.30577, 50: 0.03144, 51: 1.70241, 52: 2.68760
    63 |      | 53:-0.61095, 54:-0.74976, 55: 0.34184, 56:-0.36488, 57: 0.90059, 58: 1.12216, 59:-0.78363, 60: 0.22357, 61: 0.43373,
                62:-0.47934
-------|------|---------------------------------------------------------------------------------------------------------------------
