SNNS network definition file V1.4-3D
generated at Wed Oct 14 11:55:26 2009

network name : SNNS_FF_NET
source files :
no. of units : 63
no. of connections : 530
no. of unit types : 0
no. of site types : 0


learning function : Std_Backpropagation
update function   : Topological_Order


unit default section :

act      | bias     | st | subnet | layer | act func     | out func
---------|----------|----|--------|-------|--------------|-------------
 0.00000 |  0.00000 | h  |      0 |     1 | Act_Logistic | Out_Identity 
---------|----------|----|--------|-------|--------------|-------------


unit definition section :

no. | typeName | unitName | act      | bias     | st | position | act func | out func | sites
----|----------|----------|----------|----------|----|----------|----------|----------|-------
  1 |          | unit     |  0.00000 |  0.00000 | i  |  2, 2,-26102 |||
  2 |          | unit     |  0.00000 |  0.00000 | i  |  3, 2,-26102 |||
  3 |          | unit     |  0.00000 |  0.00000 | i  |  4, 2,-26102 |||
  4 |          | unit     |  0.00000 |  0.00000 | i  |  5, 2,-26102 |||
  5 |          | unit     |  0.00000 |  0.00000 | i  |  2, 3,-26102 |||
  6 |          | unit     |  0.00000 |  0.00000 | i  |  3, 3,-26102 |||
  7 |          | unit     |  0.00000 |  0.00000 | i  |  4, 3,-26102 |||
  8 |          | unit     |  0.00000 |  0.00000 | i  |  5, 3,-26102 |||
  9 |          | unit     |  0.00000 |  0.00000 | i  |  2, 4,-26102 |||
 10 |          | unit     |  0.00000 |  0.00000 | i  |  3, 4,-26102 |||
 11 |          | unit     |  0.00000 |  0.00000 | i  |  4, 4,-26102 |||
 12 |          | unit     |  0.00000 |  0.00000 | i  |  5, 4,-26102 |||
 13 |          | unit     |  0.00000 |  0.00000 | i  |  2, 5,-26102 |||
 14 |          | unit     |  0.00000 |  0.00000 | i  |  3, 5,-26102 |||
 15 |          | unit     |  0.00000 |  0.00000 | i  |  4, 5,-26102 |||
 16 |          | unit     |  0.00000 |  0.00000 | i  |  5, 5,-26102 |||
 17 |          | unit     |  0.00000 |  0.00000 | i  |  2, 6,-26102 |||
 18 |          | unit     |  0.00000 |  0.00000 | i  |  3, 6,-26102 |||
 19 |          | unit     |  0.00000 |  0.00000 | i  |  4, 6,-26102 |||
 20 |          | unit     |  0.00000 |  0.00000 | i  |  5, 6,-26102 |||
 21 |          | unit     |  0.00000 |  0.00000 | i  |  2, 7,-26102 |||
 22 |          | unit     |  0.00000 |  0.00000 | i  |  3, 7,-26102 |||
 23 |          | unit     |  0.00000 |  0.00000 | i  |  4, 7,-26102 |||
 24 |          | unit     |  0.00000 |  0.00000 | i  |  5, 7,-26102 |||
 25 |          | unit     |  0.00000 |  0.00000 | i  |  2, 8,-26102 |||
 26 |          | unit     |  0.00000 |  0.00000 | i  |  3, 8,-26102 |||
 27 |          | unit     |  0.00000 |  0.00000 | i  |  4, 8,-26102 |||
 28 |          | unit     |  0.00000 |  0.00000 | i  |  5, 8,-26102 |||
 29 |          | unit     |  0.00000 |  0.00000 | i  |  2, 9,-26102 |||
 30 |          | unit     |  0.00000 |  0.00000 | i  |  3, 9,-26102 |||
 31 |          | unit     |  0.00000 |  0.00000 | i  |  4, 9,-26102 |||
 32 |          | unit     |  0.00000 |  0.00000 | i  |  5, 9,-26102 |||
 33 |          | unit     |  0.00000 |  0.00000 | i  |  2,10,-26102 |||
 34 |          | unit     |  0.00000 |  0.00000 | i  |  3,10,-26102 |||
 35 |          | unit     |  0.00000 |  0.00000 | i  |  4,10,-26102 |||
 36 |          | unit     |  0.00000 |  0.00000 | i  |  5,10,-26102 |||
 37 |          | unit     |  0.00000 |  0.00000 | i  |  2,11,-26102 |||
 38 |          | unit     |  0.00000 |  0.00000 | i  |  3,11,-26102 |||
 39 |          | unit     |  0.00000 |  0.00000 | i  |  4,11,-26102 |||
 40 |          | unit     |  0.00000 |  0.00000 | i  |  5,11,-26102 |||
 41 |          | unit     |  0.00000 |  0.00000 | i  |  2,12,-26102 |||
 42 |          | unit     |  0.00000 |  0.00000 | i  |  3,12,-26102 |||
 43 |          | unit     |  0.00000 |  0.00000 | i  |  4,12,-26102 |||
 44 |          | unit     |  0.00000 |  0.00000 | i  |  5,12,-26102 |||
 45 |          | unit     |  0.00000 |  0.00000 | i  |  2,13,-26102 |||
 46 |          | unit     |  0.00000 |  0.00000 | i  |  3,13,-26102 |||
 47 |          | unit     |  0.00000 |  0.00000 | i  |  4,13,-26102 |||
 48 |          | unit     |  0.00000 |  0.00000 | i  |  5,13,-26102 |||
 49 |          | unit     |  0.00000 |  0.00000 | i  |  2,14,-26102 |||
 50 |          | unit     |  0.00000 |  0.00000 | i  |  3,14,-26102 |||
 51 |          | unit     |  0.00000 |  0.00000 | i  |  4,14,-26102 |||
 52 |          | unit     |  0.00000 |  0.00000 | i  |  5,14,-26102 |||
 53 |          | unit     |  0.00000 |  0.00000 | h  |  8, 2,-26102 |||
 54 |          | unit     |  0.00000 |  0.00000 | h  |  8, 3,-26102 |||
 55 |          | unit     |  0.00000 |  0.00000 | h  |  8, 4,-26102 |||
 56 |          | unit     |  0.00000 |  0.00000 | h  |  8, 5,-26102 |||
 57 |          | unit     |  0.00000 |  0.00000 | h  |  8, 6,-26102 |||
 58 |          | unit     |  0.00000 |  0.00000 | h  |  8, 7,-26102 |||
 59 |          | unit     |  0.00000 |  0.00000 | h  |  8, 8,-26102 |||
 60 |          | unit     |  0.00000 |  0.00000 | h  |  8, 9,-26102 |||
 61 |          | unit     |  0.00000 |  0.00000 | h  |  8,10,-26102 |||
 62 |          | unit     |  0.00000 |  0.00000 | h  |  8,11,-26102 |||
 63 |          | unit     |  0.00000 |  0.00000 | o  | 11, 2,-26102 |||
----|----------|----------|----------|----------|----|----------|----------|----------|-------


connection definition section :

target | site | source:weight
-------|------|---------------------------------------------------------------------------------------------------------------------
    53 |      | 52: 0.00000, 51: 0.00000, 50: 0.00000, 49: 0.00000, 48: 0.00000, 47: 0.00000, 46: 0.00000, 45: 0.00000, 44: 0.00000,
                43: 0.00000, 42: 0.00000, 41: 0.00000, 40: 0.00000, 39: 0.00000, 38: 0.00000, 37: 0.00000, 36: 0.00000, 35: 0.00000,
                34: 0.00000, 33: 0.00000, 32: 0.00000, 31: 0.00000, 30: 0.00000, 29: 0.00000, 28: 0.00000, 27: 0.00000, 26: 0.00000,
                25: 0.00000, 24: 0.00000, 23: 0.00000, 22: 0.00000, 21: 0.00000, 20: 0.00000, 19: 0.00000, 18: 0.00000, 17: 0.00000,
                16: 0.00000, 15: 0.00000, 14: 0.00000, 13: 0.00000, 12: 0.00000, 11: 0.00000, 10: 0.00000,  9: 0.00000,  8: 0.00000,
                 7: 0.00000,  6: 0.00000,  5: 0.00000,  4: 0.00000,  3: 0.00000,  2: 0.00000,  1: 0.00000
    54 |      | 52: 0.00000, 51: 0.00000, 50: 0.00000, 49: 0.00000, 48: 0.00000, 47: 0.00000, 46: 0.00000, 45: 0.00000, 44: 0.00000,
                43: 0.00000, 42: 0.00000, 41: 0.00000, 40: 0.00000, 39: 0.00000, 38: 0.00000, 37: 0.00000, 36: 0.00000, 35: 0.00000,
                34: 0.00000, 33: 0.00000, 32: 0.00000, 31: 0.00000, 30: 0.00000, 29: 0.00000, 28: 0.00000, 27: 0.00000, 26: 0.00000,
                25: 0.00000, 24: 0.00000, 23: 0.00000, 22: 0.00000, 21: 0.00000, 20: 0.00000, 19: 0.00000, 18: 0.00000, 17: 0.00000,
                16: 0.00000, 15: 0.00000, 14: 0.00000, 13: 0.00000, 12: 0.00000, 11: 0.00000, 10: 0.00000,  9: 0.00000,  8: 0.00000,
                 7: 0.00000,  6: 0.00000,  5: 0.00000,  4: 0.00000,  3: 0.00000,  2: 0.00000,  1: 0.00000
    55 |      | 52: 0.00000, 51: 0.00000, 50: 0.00000, 49: 0.00000, 48: 0.00000, 47: 0.00000, 46: 0.00000, 45: 0.00000, 44: 0.00000,
                43: 0.00000, 42: 0.00000, 41: 0.00000, 40: 0.00000, 39: 0.00000, 38: 0.00000, 37: 0.00000, 36: 0.00000, 35: 0.00000,
                34: 0.00000, 33: 0.00000, 32: 0.00000, 31: 0.00000, 30: 0.00000, 29: 0.00000, 28: 0.00000, 27: 0.00000, 26: 0.00000,
                25: 0.00000, 24: 0.00000, 23: 0.00000, 22: 0.00000, 21: 0.00000, 20: 0.00000, 19: 0.00000, 18: 0.00000, 17: 0.00000,
                16: 0.00000, 15: 0.00000, 14: 0.00000, 13: 0.00000, 12: 0.00000, 11: 0.00000, 10: 0.00000,  9: 0.00000,  8: 0.00000,
                 7: 0.00000,  6: 0.00000,  5: 0.00000,  4: 0.00000,  3: 0.00000,  2: 0.00000,  1: 0.00000
    56 |      | 52: 0.00000, 51: 0.00000, 50: 0.00000, 49: 0.00000, 48: 0.00000, 47: 0.00000, 46: 0.00000, 45: 0.00000, 44: 0.00000,
                43: 0.00000, 42: 0.00000, 41: 0.00000, 40: 0.00000, 39: 0.00000, 38: 0.00000, 37: 0.00000, 36: 0.00000, 35: 0.00000,
                34: 0.00000, 33: 0.00000, 32: 0.00000, 31: 0.00000, 30: 0.00000, 29: 0.00000, 28: 0.00000, 27: 0.00000, 26: 0.00000,
                25: 0.00000, 24: 0.00000, 23: 0.00000, 22: 0.00000, 21: 0.00000, 20: 0.00000, 19: 0.00000, 18: 0.00000, 17: 0.00000,
                16: 0.00000, 15: 0.00000, 14: 0.00000, 13: 0.00000, 12: 0.00000, 11: 0.00000, 10: 0.00000,  9: 0.00000,  8: 0.00000,
                 7: 0.00000,  6: 0.00000,  5: 0.00000,  4: 0.00000,  3: 0.00000,  2: 0.00000,  1: 0.00000
    57 |      | 52: 0.00000, 51: 0.00000, 50: 0.00000, 49: 0.00000, 48: 0.00000, 47: 0.00000, 46: 0.00000, 45: 0.00000, 44: 0.00000,
                43: 0.00000, 42: 0.00000, 41: 0.00000, 40: 0.00000, 39: 0.00000, 38: 0.00000, 37: 0.00000, 36: 0.00000, 35: 0.00000,
                34: 0.00000, 33: 0.00000, 32: 0.00000, 31: 0.00000, 30: 0.00000, 29: 0.00000, 28: 0.00000, 27: 0.00000, 26: 0.00000,
                25: 0.00000, 24: 0.00000, 23: 0.00000, 22: 0.00000, 21: 0.00000, 20: 0.00000, 19: 0.00000, 18: 0.00000, 17: 0.00000,
                16: 0.00000, 15: 0.00000, 14: 0.00000, 13: 0.00000, 12: 0.00000, 11: 0.00000, 10: 0.00000,  9: 0.00000,  8: 0.00000,
                 7: 0.00000,  6: 0.00000,  5: 0.00000,  4: 0.00000,  3: 0.00000,  2: 0.00000,  1: 0.00000
    58 |      | 52: 0.00000, 51: 0.00000, 50: 0.00000, 49: 0.00000, 48: 0.00000, 47: 0.00000, 46: 0.00000, 45: 0.00000, 44: 0.00000,
                43: 0.00000, 42: 0.00000, 41: 0.00000, 40: 0.00000, 39: 0.00000, 38: 0.00000, 37: 0.00000, 36: 0.00000, 35: 0.00000,
                34: 0.00000, 33: 0.00000, 32: 0.00000, 31: 0.00000, 30: 0.00000, 29: 0.00000, 28: 0.00000, 27: 0.00000, 26: 0.00000,
                25: 0.00000, 24: 0.00000, 23: 0.00000, 22: 0.00000, 21: 0.00000, 20: 0.00000, 19: 0.00000, 18: 0.00000, 17: 0.00000,
                16: 0.00000, 15: 0.00000, 14: 0.00000, 13: 0.00000, 12: 0.00000, 11: 0.00000, 10: 0.00000,  9: 0.00000,  8: 0.00000,
                 7: 0.00000,  6: 0.00000,  5: 0.00000,  4: 0.00000,  3: 0.00000,  2: 0.00000,  1: 0.00000
    59 |      | 52: 0.00000, 51: 0.00000, 50: 0.00000, 49: 0.00000, 48: 0.00000, 47: 0.00000, 46: 0.00000, 45: 0.00000, 44: 0.00000,
                43: 0.00000, 42: 0.00000, 41: 0.00000, 40: 0.00000, 39: 0.00000, 38: 0.00000, 37: 0.00000, 36: 0.00000, 35: 0.00000,
                34: 0.00000, 33: 0.00000, 32: 0.00000, 31: 0.00000, 30: 0.00000, 29: 0.00000, 28: 0.00000, 27: 0.00000, 26: 0.00000,
                25: 0.00000, 24: 0.00000, 23: 0.00000, 22: 0.00000, 21: 0.00000, 20: 0.00000, 19: 0.00000, 18: 0.00000, 17: 0.00000,
                16: 0.00000, 15: 0.00000, 14: 0.00000, 13: 0.00000, 12: 0.00000, 11: 0.00000, 10: 0.00000,  9: 0.00000,  8: 0.00000,
                 7: 0.00000,  6: 0.00000,  5: 0.00000,  4: 0.00000,  3: 0.00000,  2: 0.00000,  1: 0.00000
    60 |      | 52: 0.00000, 51: 0.00000, 50: 0.00000, 49: 0.00000, 48: 0.00000, 47: 0.00000, 46: 0.00000, 45: 0.00000, 44: 0.00000,
                43: 0.00000, 42: 0.00000, 41: 0.00000, 40: 0.00000, 39: 0.00000, 38: 0.00000, 37: 0.00000, 36: 0.00000, 35: 0.00000,
                34: 0.00000, 33: 0.00000, 32: 0.00000, 31: 0.00000, 30: 0.00000, 29: 0.00000, 28: 0.00000, 27: 0.00000, 26: 0.00000,
                25: 0.00000, 24: 0.00000, 23: 0.00000, 22: 0.00000, 21: 0.00000, 20: 0.00000, 19: 0.00000, 18: 0.00000, 17: 0.00000,
                16: 0.00000, 15: 0.00000, 14: 0.00000, 13: 0.00000, 12: 0.00000, 11: 0.00000, 10: 0.00000,  9: 0.00000,  8: 0.00000,
                 7: 0.00000,  6: 0.00000,  5: 0.00000,  4: 0.00000,  3: 0.00000,  2: 0.00000,  1: 0.00000
    61 |      | 52: 0.00000, 51: 0.00000, 50: 0.00000, 49: 0.00000, 48: 0.00000, 47: 0.00000, 46: 0.00000, 45: 0.00000, 44: 0.00000,
                43: 0.00000, 42: 0.00000, 41: 0.00000, 40: 0.00000, 39: 0.00000, 38: 0.00000, 37: 0.00000, 36: 0.00000, 35: 0.00000,
                34: 0.00000, 33: 0.00000, 32: 0.00000, 31: 0.00000, 30: 0.00000, 29: 0.00000, 28: 0.00000, 27: 0.00000, 26: 0.00000,
                25: 0.00000, 24: 0.00000, 23: 0.00000, 22: 0.00000, 21: 0.00000, 20: 0.00000, 19: 0.00000, 18: 0.00000, 17: 0.00000,
                16: 0.00000, 15: 0.00000, 14: 0.00000, 13: 0.00000, 12: 0.00000, 11: 0.00000, 10: 0.00000,  9: 0.00000,  8: 0.00000,
                 7: 0.00000,  6: 0.00000,  5: 0.00000,  4: 0.00000,  3: 0.00000,  2: 0.00000,  1: 0.00000
    62 |      | 52: 0.00000, 51: 0.00000, 50: 0.00000, 49: 0.00000, 48: 0.00000, 47: 0.00000, 46: 0.00000, 45: 0.00000, 44: 0.00000,
                43: 0.00000, 42: 0.00000, 41: 0.00000, 40: 0.00000, 39: 0.00000, 38: 0.00000, 37: 0.00000, 36: 0.00000, 35: 0.00000,
                34: 0.00000, 33: 0.00000, 32: 0.00000, 31: 0.00000, 30: 0.00000, 29: 0.00000, 28: 0.00000, 27: 0.00000, 26: 0.00000,
                25: 0.00000, 24: 0.00000, 23: 0.00000, 22: 0.00000, 21: 0.00000, 20: 0.00000, 19: 0.00000, 18: 0.00000, 17: 0.00000,
                16: 0.00000, 15: 0.00000, 14: 0.00000, 13: 0.00000, 12: 0.00000, 11: 0.00000, 10: 0.00000,  9: 0.00000,  8: 0.00000,
                 7: 0.00000,  6: 0.00000,  5: 0.00000,  4: 0.00000,  3: 0.00000,  2: 0.00000,  1: 0.00000
    63 |      | 62: 0.00000, 61: 0.00000, 60: 0.00000, 59: 0.00000, 58: 0.00000, 57: 0.00000, 56: 0.00000, 55: 0.00000, 54: 0.00000,
                53: 0.00000
-------|------|---------------------------------------------------------------------------------------------------------------------
