SNNS network definition file V1.4-3D
generated at Thu Feb  2 18:11:14 2023

network name : SNNS_FF_NET
source files :
no. of units : 63
no. of connections : 530
no. of unit types : 0
no. of site types : 0


learning function : Rprop
update function   : Topological_Order


unit default section :

act      | bias     | st | subnet | layer | act func     | out func
---------|----------|----|--------|-------|--------------|-------------
 0.00000 |  0.00000 | h  |      0 |     1 | Act_Logistic | Out_Identity 
---------|----------|----|--------|-------|--------------|-------------


unit definition section :

no. | typeName | unitName | act      | bias     | st | position | act func | out func | sites
----|----------|----------|----------|----------|----|----------|----------|----------|-------
  1 |          | unit     |  5.00000 |  1.00000 | i  |  2, 2,-26102 |||
  2 |          | unit     |  0.00000 |  0.99803 | i  |  3, 2,-26102 |||
  3 |          | unit     |  4.00000 |  0.91674 | i  |  4, 2,-26102 |||
  4 |          | unit     | -0.69000 |  0.64671 | i  |  5, 2,-26102 |||
  5 |          | unit     |  3.00000 |  0.27080 | i  |  2, 3,-26102 |||
  6 |          | unit     |  0.00000 |  0.81734 | i  |  3, 3,-26102 |||
  7 |          | unit     |  2.00000 |  0.81540 | i  |  4, 3,-26102 |||
  8 |          | unit     | -0.18000 |  0.02557 | i  |  5, 3,-26102 |||
  9 |          | unit     |  5.00000 | -0.05350 | i  |  2, 4,-26102 |||
 10 |          | unit     | -1.00000 |  0.09113 | i  |  3, 4,-26102 |||
 11 |          | unit     |  4.00000 |  0.53364 | i  |  4, 4,-26102 |||
 12 |          | unit     | -0.62000 | -0.66258 | i  |  5, 4,-26102 |||
 13 |          | unit     |  4.00000 | -0.86346 | i  |  2, 5,-26102 |||
 14 |          | unit     |  0.00000 | -0.13612 | i  |  3, 5,-26102 |||
 15 |          | unit     |  3.00000 | -0.11219 | i  |  4, 5,-26102 |||
 16 |          | unit     |  0.53000 |  0.89834 | i  |  5, 5,-26102 |||
 17 |          | unit     |  2.00000 | -0.53410 | i  |  2, 6,-26102 |||
 18 |          | unit     |  0.00000 |  0.96217 | i  |  3, 6,-26102 |||
 19 |          | unit     |  2.00000 |  0.49528 | i  |  4, 6,-26102 |||
 20 |          | unit     | -0.26000 |  0.40361 | i  |  5, 6,-26102 |||
 21 |          | unit     |  2.00000 | -0.75196 | i  |  2, 7,-26102 |||
 22 |          | unit     |  0.00000 | -0.06311 | i  |  3, 7,-26102 |||
 23 |          | unit     |  2.00000 | -0.84052 | i  |  4, 7,-26102 |||
 24 |          | unit     | -0.26000 | -0.03086 | i  |  5, 7,-26102 |||
 25 |          | unit     |  8.00000 | -0.62086 | i  |  2, 8,-26102 |||
 26 |          | unit     |  0.00000 |  0.62316 | i  |  3, 8,-26102 |||
 27 |          | unit     |  6.00000 | -0.77263 | i  |  4, 8,-26102 |||
 28 |          | unit     |  0.02000 | -0.14123 | i  |  5, 8,-26102 |||
 29 |          | unit     |  5.00000 |  0.84645 | i  |  2, 9,-26102 |||
 30 |          | unit     |  0.00000 | -0.63055 | i  |  3, 9,-26102 |||
 31 |          | unit     |  4.00000 | -0.96978 | i  |  4, 9,-26102 |||
 32 |          | unit     | -0.69000 |  0.76330 | i  |  5, 9,-26102 |||
 33 |          | unit     |  5.00000 | -0.78781 | i  |  2,10,-26102 |||
 34 |          | unit     |  0.00000 | -0.56897 | i  |  3,10,-26102 |||
 35 |          | unit     |  4.00000 |  0.79817 | i  |  4,10,-26102 |||
 36 |          | unit     | -0.69000 |  0.49338 | i  |  5,10,-26102 |||
 37 |          | unit     |  0.00000 |  0.96032 | i  |  2,11,-26102 |||
 38 |          | unit     |  0.00000 |  0.24325 | i  |  3,11,-26102 |||
 39 |          | unit     |  0.00000 | -0.35775 | i  |  4,11,-26102 |||
 40 |          | unit     |  0.16000 | -0.36185 | i  |  5,11,-26102 |||
 41 |          | unit     |  4.00000 | -0.50541 | i  |  2,12,-26102 |||
 42 |          | unit     |  0.00000 |  0.98754 | i  |  3,12,-26102 |||
 43 |          | unit     |  2.00000 | -0.24881 | i  |  4,12,-26102 |||
 44 |          | unit     | -0.07000 |  0.74708 | i  |  5,12,-26102 |||
 45 |          | unit     |  4.00000 | -0.23510 | i  |  2,13,-26102 |||
 46 |          | unit     |  0.00000 | -0.54186 | i  |  3,13,-26102 |||
 47 |          | unit     |  3.00000 |  0.62693 | i  |  4,13,-26102 |||
 48 |          | unit     |  0.53000 |  0.00656 | i  |  5,13,-26102 |||
 49 |          | unit     |  8.00000 | -0.01900 | i  |  2,14,-26102 |||
 50 |          | unit     |  0.00000 |  0.36812 | i  |  3,14,-26102 |||
 51 |          | unit     |  6.00000 | -0.40341 | i  |  4,14,-26102 |||
 52 |          | unit     |  0.02000 |  0.26551 | i  |  5,14,-26102 |||
 53 |          | unit     |  0.00003 | -0.72744 | h  |  8, 2,-26102 |||
 54 |          | unit     |  0.87061 |  0.54299 | h  |  8, 3,-26102 |||
 55 |          | unit     |  0.00001 |  0.58696 | h  |  8, 4,-26102 |||
 56 |          | unit     |  0.00000 |  0.22761 | h  |  8, 5,-26102 |||
 57 |          | unit     |  1.00000 | -0.46391 | h  |  8, 6,-26102 |||
 58 |          | unit     |  0.00000 |  0.84288 | h  |  8, 7,-26102 |||
 59 |          | unit     |  0.00001 |  0.83635 | h  |  8, 8,-26102 |||
 60 |          | unit     |  1.00000 |  0.14963 | h  |  8, 9,-26102 |||
 61 |          | unit     |  1.00000 |  0.85029 | h  |  8,10,-26102 |||
 62 |          | unit     |  1.00000 |  0.59630 | h  |  8,11,-26102 |||
 63 |          | unit     |  0.48411 | -0.27177 | o  | 11, 2,-26102 |||
----|----------|----------|----------|----------|----|----------|----------|----------|-------


connection definition section :

target | site | source:weight
-------|------|---------------------------------------------------------------------------------------------------------------------
    53 |      |  1: 0.56989,  2: 0.85053,  3: 0.17335,  4:-0.07605,  5: 0.03749,  6:-0.96485,  7:-0.53785,  8:-0.80538,  9:-0.03722,
                10:-0.94225, 11:-0.16768, 12: 1.12025, 13: 0.87629, 14: 0.45937, 15: 0.89060, 16: 0.96240, 17:-1.28504, 18: 7.55581,
                19:-0.12707, 20: 0.67211, 21: 0.25194, 22:-2.61520, 23:-0.69389, 24: 0.90316, 25:-0.86081, 26:-24.44572, 27: 0.27880,
                28:-2.03051, 29: 0.41839, 30: 0.87889, 31:-0.52960, 32:-3.62038, 33: 0.26120, 34: 2.94410, 35:-0.22789, 36:-0.36833,
                37: 0.44219, 38: 0.04772, 39:-0.52539, 40: 1.26791, 41: 0.25643, 42: 0.94643, 43: 0.07792, 44: 6.06740, 45: 0.03271,
                46: 3.67133, 47:-0.73297, 48: 0.31596, 49:-0.94939, 50: 2.51020, 51:-0.60072, 52:-1.41720
    54 |      |  1:-0.08655,  2: 2.97844,  3:-0.99106,  4:-0.94795,  5:-0.08593,  6:-0.98856,  7: 1.50785,  8: 1.81469,  9: 3.08297,
                10: 0.49056, 11:-1.57831, 12: 4.74904, 13: 0.65053, 14:-0.22092, 15:-0.87959, 16:-2.66143, 17: 0.39115, 18:-2.52145,
                19:-0.81456, 20:-1.99760, 21: 0.08797, 22: 7.68953, 23:-0.03446, 24:-1.80670, 25:-0.28358, 26: 7.16530, 27: 0.56941,
                28:-0.47097, 29:-0.96089, 30: 3.45696, 31:-0.94844, 32:-0.32441, 33:-0.66088, 34: 4.11090, 35: 0.24020, 36: 4.57341,
                37:-0.04769, 38: 3.94499, 39:-1.32425, 40:-9.07475, 41: 0.67117, 42:-0.70793, 43: 0.56506, 44: 1.36650, 45:-0.16059,
                46: 7.46953, 47: 0.11536, 48: 3.09345, 49: 0.65753, 50:-1.05699, 51: 0.33478, 52: 3.03198
    55 |      |  1: 1.80232,  2: 2.75997,  3:-0.01048,  4: 0.20032,  5: 0.06460,  6: 5.49416,  7: 0.06173,  8:-1.81904,  9: 0.31127,
                10: 4.88558, 11: 0.11167, 12:-3.03638, 13:-0.12607, 14: 0.86015, 15:-0.61846, 16: 0.07722, 17:-1.00738, 18:-8.73813,
                19:-0.66884, 20:-10.91624, 21: 1.25895, 22: 3.13872, 23: 0.84542, 24:-5.07343, 25:-1.36309, 26: 1.46960, 27:-0.35144,
                28: 3.42766, 29:-0.04644, 30:-4.28236, 31:-0.91021, 32: 1.83446, 33: 0.09318, 34:15.17492, 35: 0.15963, 36: 5.00102,
                37: 0.39761, 38: 1.28697, 39: 1.18018, 40: 3.44241, 41: 0.16934, 42:-0.26043, 43: 1.34593, 44: 2.20548, 45: 0.04808,
                46: 2.18841, 47:-0.42356, 48:-0.88582, 49:-0.16125, 50:-11.88078, 51:-0.63130, 52:-0.20894
    56 |      |  1: 1.14594,  2: 4.28497,  3:-0.78586,  4:-2.02019,  5: 0.88710,  6:-1.03327,  7: 0.02381,  8: 0.94678,  9:-1.04692,
                10: 0.48515, 11:-0.51986, 12:-7.86863, 13: 0.45877, 14: 0.56840, 15: 0.75450, 16:-5.54450, 17: 0.58026, 18:-2.60395,
                19: 0.19903, 20:-3.04744, 21:-0.14130, 22:-1.70888, 23: 0.06950, 24: 0.94482, 25: 0.20277, 26:-95.66264, 27:-0.43607,
                28: 8.52873, 29:-0.99228, 30: 6.46406, 31:-0.87351, 32: 5.70269, 33:-1.00116, 34:-2.06398, 35: 0.59408, 36:-4.67440,
                37:-0.61348, 38: 8.49882, 39: 0.71789, 40:-1.58531, 41:-1.00581, 42:-0.77344, 43:-0.47469, 44:-41.33958, 45: 0.09506,
                46: 6.44246, 47: 0.81618, 48:-0.36970, 49:-0.89627, 50:-5.32241, 51:-0.42019, 52:-1.76254
    57 |      |  1: 5.04431,  2:24.49907,  3: 0.87517,  4:-8.14977,  5:-0.37109,  6:32.42788,  7:-0.33255,  8:-9.95528,  9: 0.18775,
                10: 5.74712, 11:-0.88615, 12:-3.26019, 13: 0.28652, 14: 0.87384, 15: 0.98507, 16: 0.61105, 17: 0.26687, 18:15.36838,
                19:-1.19013, 20: 6.69721, 21:-0.34377, 22:21.27159, 23:-0.00355, 24:-10.56628, 25: 0.20119, 26:91.71098, 27:-0.45999,
                28:10.72385, 29: 0.77645, 30:30.01526, 31:-0.49223, 32: 0.53203, 33:-0.16637, 34:-39.18735, 35: 0.94265, 36:-2.94168,
                37:100.17789, 38:-98.37379, 39:99.40946, 40: 0.03012, 41:-0.01380, 42:-0.96105, 43:-0.22566, 44: 5.16808, 45:-0.49301,
                46:-0.30774, 47:-0.94380, 48:-1.87457, 49: 0.33670, 50: 9.97388, 51: 0.78058, 52:-1.21237
    58 |      |  1:-0.43364,  2: 1.91004,  3: 0.77342,  4: 5.73852,  5: 1.08714,  6: 6.32243,  7: 3.50489,  8: 7.44233,  9: 0.27708,
                10:-6.77878, 11:-1.93667, 12:-0.22815, 13:-0.86849, 14:-0.52472, 15:-1.82782, 16:-5.36680, 17: 0.43833, 18:12.23551,
                19:-1.29361, 20: 0.65032, 21:-1.63098, 22:-2.77205, 23:-0.98641, 24: 4.12584, 25: 0.15015, 26: 1.18192, 27: 0.47430,
                28: 9.88380, 29: 1.41313, 30: 5.26901, 31:-0.30580, 32:-1.24547, 33:-1.06819, 34: 0.33265, 35: 0.52483, 36:24.81576,
                37:-2.93292, 38: 0.98670, 39:-0.05077, 40: 1.06963, 41: 0.06894, 42:-0.79532, 43:-0.38180, 44:-2.76580, 45: 1.14145,
                46:-4.50175, 47:-0.25648, 48: 0.17616, 49:-0.81012, 50:-5.28133, 51: 0.87495, 52: 8.56985
    59 |      |  1:-1.33255,  2: 6.89058,  3: 0.80851,  4: 0.95574,  5:-0.03719,  6: 5.97609,  7: 1.96921,  8:-0.53190,  9: 0.40127,
                10: 5.32622, 11: 1.36445, 12:-0.21262, 13:-0.29128, 14:-0.78583, 15:-0.23856, 16: 5.63832, 17: 0.29358, 18:-1.89183,
                19:-0.85768, 20:-2.59734, 21:-0.67369, 22:-2.10168, 23:-0.18362, 24:-8.55324, 25:-0.03426, 26: 3.19017, 27:-0.48459,
                28:10.57254, 29: 0.96682, 30: 2.64207, 31: 0.80258, 32:-0.33466, 33: 0.86902, 34: 7.07240, 35:-0.80615, 36: 6.52574,
                37:-0.40226, 38: 0.00034, 39:-0.00426, 40: 5.64655, 41: 0.24794, 42: 0.88699, 43: 0.02357, 44:11.12883, 45:-0.98297,
                46:-8.76169, 47:-1.42791, 48: 1.33842, 49:-0.73663, 50:16.64762, 51:-0.88576, 52:12.19209
    60 |      |  1: 1.08797,  2:-2.22513,  3:-0.79463,  4:-0.93316,  5: 2.01111,  6:-38.44214,  7: 2.15131,  8:-12.25572,  9:-1.54618,
                10: 0.97413, 11: 3.89999, 12: 0.22287, 13:-1.09511, 14:-0.00986, 15:-0.98609, 16:12.52799, 17:-0.52111, 18:-9.58722,
                19: 0.23421, 20:-14.64842, 21:-0.28167, 22:-13.71663, 23: 3.97472, 24:-10.63164, 25:-0.21676, 26:-2.04476, 27:-0.57082,
                28:-3.82780, 29: 0.64431, 30:-12.21981, 31:-0.03699, 32:-2.45732, 33:-2.06207, 34:16.56293, 35:-0.75020, 36:-13.89012,
                37: 0.12878, 38: 5.05741, 39:-2.18578, 40:-12.06130, 41: 0.99480, 42: 0.41731, 43:-0.28738, 44:-5.40721, 45: 0.79396,
                46:-24.77928, 47: 0.72821, 48:-11.88278, 49: 0.77267, 50:-8.62102, 51:-0.65839, 52:-0.43685
    61 |      |  1: 1.29401,  2:-4.27380,  3: 0.35364,  4:-1.53424,  5: 0.67239,  6: 4.92141,  7: 0.05333,  8:-0.91974,  9: 1.48386,
                10: 5.82969, 11:-0.90696, 12:-2.34363, 13:-0.31776, 14: 0.65248, 15: 0.01787, 16: 5.34127, 17:-1.67576, 18:-5.52441,
                19: 0.74116, 20: 5.70849, 21:-0.91312, 22:-1.58194, 23:-0.38263, 24: 3.97844, 25: 0.44643, 26: 5.10673, 27:-0.29699,
                28:12.34102, 29: 1.05564, 30:-1.29774, 31: 0.33370, 32:-0.75186, 33: 0.03644, 34: 2.69100, 35:-0.07797, 36: 0.21093,
                37: 1.44561, 38:-1.44394, 39:-2.14064, 40:-0.21040, 41: 0.56332, 42:-0.04856, 43: 0.66387, 44:-16.17121, 45:-0.55503,
                46:-21.18916, 47: 0.32549, 48:-9.50216, 49:-0.31929, 50:-1.55328, 51: 1.10413, 52: 3.73865
    62 |      |  1: 0.56001,  2: 4.89423,  3: 0.31943,  4:-14.16754,  5:-0.22163,  6:20.96132,  7: 0.60893,  8:-6.29468,  9:-0.15592,
                10:-7.33308, 11:-0.28694, 12: 0.69673, 13: 0.20247, 14:-0.42574, 15: 0.84836, 16: 0.69435, 17: 0.31716, 18:14.83138,
                19:-0.82017, 20:-3.33130, 21:-0.29986, 22:-0.64316, 23:-0.77050, 24: 3.37504, 25:-0.44425, 26:-32.00441, 27:-0.59588,
                28:-1.51028, 29: 0.37019, 30:12.12633, 31: 0.63058, 32: 2.66030, 33: 1.46135, 34: 8.47893, 35: 0.76605, 36:16.12184,
                37: 0.88698, 38:-3.23511, 39:-0.70179, 40: 1.05758, 41: 0.47857, 42:-0.54554, 43: 0.71907, 44: 3.95588, 45: 0.47157,
                46: 2.92047, 47: 1.47333, 48: 2.67096, 49: 0.70523, 50: 3.29544, 51:-0.89626, 52:17.95416
    63 |      | 53:-1.50937, 54:-0.66163, 55: 0.66575, 56:-0.77981, 57: 0.56870, 58: 0.55225, 59:-0.42840, 60: 0.53345, 61: 0.39542,
                62:-0.71336
-------|------|---------------------------------------------------------------------------------------------------------------------
